<PMML xmlns="http://www.dmg.org/PMML-4_3" version="4.3">
    <Header copyright="www.dmg.org" description="example model for association rules"/>
    <DataDictionary numberOfFields="2">
        <DataField name="transaction" optype="categorical" dataType="string"/>
        <DataField name="item" optype="categorical" dataType="string"/>
    </DataDictionary>
    <AssociationModel functionName="associationRules" numberOfTransactions="4" numberOfItems="3" minimumSupport="0.6"
                      minimumConfidence="0.5" numberOfItemsets="3" numberOfRules="2">
        <MiningSchema>
            <MiningField name="transaction" usageType="group"/>
            <MiningField name="item" usageType="active"/>
        </MiningSchema>

        <Output>
            <!-- There are nine outputs defined for this model -->
            <!-- that return the top three highest confidence  -->
            <!-- "exclusiveRecommendation" results (selecting  -->
            <!-- rules where the items in the input itemset    -->
            <!-- appear in the antecedent but do not appear in -->
            <!-- the consequent). For each of these three      -->
            <!-- rules, there are three available outputs:     -->
            <!--   rule:       for example, "Cracker -> Water" -->
            <!--   consequent: for example, "Water"            -->
            <!--   entityId:   for example, 1                  -->
            <OutputField name="Rule (Highest Confidence)" rankBasis="confidence" rank="1"
                         algorithm="exclusiveRecommendation" feature="rule" dataType="string" optype="categorical"/>
            <OutputField name="Recommendation (Highest Confidence)" rankBasis="confidence" rank="1"
                         algorithm="exclusiveRecommendation" feature="consequent" dataType="string"
                         optype="categorical"/>
            <OutputField name="Rule Id (Highest Confidence)" rankBasis="confidence" rank="1"
                         algorithm="exclusiveRecommendation" feature="entityId" dataType="double" optype="continuous"/>
            <OutputField name="Rule (2nd Highest Confidence)" rankBasis="confidence" rank="2"
                         algorithm="exclusiveRecommendation" feature="rule" dataType="string" optype="categorical"/>
            <OutputField name="Recommendation (2nd Highest Confidence)" rankBasis="confidence" rank="2"
                         algorithm="exclusiveRecommendation" feature="consequent" dataType="string"
                         optype="categorical"/>
            <OutputField name="Rule Id (2nd Highest Confidence)" rankBasis="confidence" rank="2"
                         algorithm="exclusiveRecommendation" feature="entityId" dataType="double" optype="continuous"/>
            <OutputField name="Rule (3rd Highest Confidence)" rankBasis="confidence" rank="3"
                         algorithm="exclusiveRecommendation" feature="rule" dataType="string" optype="categorical"/>
            <OutputField name="Recommendation (3rd Highest Confidence)" rankBasis="confidence" rank="3"
                         algorithm="exclusiveRecommendation" feature="consequent" dataType="string"
                         optype="categorical"/>
            <OutputField name="Rule Id (3rd Highest Confidence)" rankBasis="confidence" rank="3"
                         algorithm="exclusiveRecommendation" feature="entityId" dataType="double" optype="continuous"/>
        </Output>

        <!-- We have three items in our input data -->
        <Item id="1" value="Cracker"/>
        <Item id="2" value="Coke"/>
        <Item id="3" value="Water"/>
        <Item id="4" value="Nachos"/>
        <Item id="5" value="Pear"/>
        <Item id="6" value="Banana"/>

        <!-- and two frequent itemsets with a single item -->

        <Itemset id="1" support="1.0" numberOfItems="1">
            <ItemRef itemRef="1"/>
        </Itemset>

        <Itemset id="2" support="1.0" numberOfItems="1">
            <ItemRef itemRef="2"/>
        </Itemset>

        <Itemset id="3" support="1.0" numberOfItems="1">
            <ItemRef itemRef="3"/>
        </Itemset>

        <Itemset id="4" support="1.0" numberOfItems="1">
            <ItemRef itemRef="4"/>
        </Itemset>

        <!-- and one frequent itemset with two items. -->

        <Itemset id="5" support="1.0" numberOfItems="2">
            <ItemRef itemRef="1"/>
            <ItemRef itemRef="3"/>
        </Itemset>


        <Itemset id="6" support="1.0" numberOfItems="2">
            <ItemRef itemRef="5"/>
            <ItemRef itemRef="6"/>
        </Itemset>

        <!-- Two rules satisfy the requirements -->

        <AssociationRule support="1.0" confidence="1.0" antecedent="1" consequent="3"/>
        <AssociationRule support="1.0" confidence="1.0" antecedent="3" consequent="1"/>
        <AssociationRule support="1.0" confidence="1.0" antecedent="1" consequent="2"/>
        <AssociationRule support="1.0" confidence="1.0" antecedent="5" consequent="4"/>
        <AssociationRule support="1.0" confidence="1.0" antecedent="3" consequent="6"/>
    </AssociationModel>
</PMML>